<?xml version="1.0"?>
<!-- DTD for the XMLBIF 0.3 format -->
<!DOCTYPE BIF [
	<!ELEMENT BIF ( NETWORK )*>
	      <!ATTLIST BIF VERSION CDATA #REQUIRED>
	<!ELEMENT NETWORK ( NAME, ( PROPERTY | VARIABLE | DEFINITION )* )>
	<!ELEMENT NAME (#PCDATA)>
	<!ELEMENT VARIABLE ( NAME, ( OUTCOME |  PROPERTY )* ) >
	      <!ATTLIST VARIABLE TYPE (nature|decision|utility) "nature">
	<!ELEMENT OUTCOME (#PCDATA)>
	<!ELEMENT DEFINITION ( FOR | GIVEN | TABLE | PROPERTY )* >
	<!ELEMENT FOR (#PCDATA)>
	<!ELEMENT GIVEN (#PCDATA)>
	<!ELEMENT TABLE (#PCDATA)>
	<!ELEMENT PROPERTY (#PCDATA)>
]>


<BIF VERSION="0.3">
<NETWORK>
<NAME>&apos;01_01_20-16_32_29-weka.filters.unsupervised.attribute.Remove-R1,20-weka.filters.unsupervised.attribute.Discretize-B6-M-1.0-R8-precision6-weka.filters.unsupervised.attribute.Discretize-B2-M-1.0-R18-precision6-weka.filters.unsupervised.attribute.Discretize-B5-M-1.0-Rfirst-last-precision6-weka.filters.unsupervised.attribute.Discretize-B2-M-1.0-R18-precision6-weka.filters.unsupervised.attribute.Discretize-B2-M-1.0-R18-precision6-unset-class-temporarily-weka.filters.unsupervised.attribute.ReplaceMissingValues&apos;</NAME>
<VARIABLE TYPE="nature">
	<NAME>steer</NAME>
	<OUTCOME>&apos;\&apos;(-inf--0.6]\&apos;&apos;</OUTCOME>
	<OUTCOME>&apos;\&apos;(-0.6--0.2]\&apos;&apos;</OUTCOME>
	<OUTCOME>&apos;\&apos;(-0.2-0.2]\&apos;&apos;</OUTCOME>
	<OUTCOME>&apos;\&apos;(0.2-0.6]\&apos;&apos;</OUTCOME>
	<OUTCOME>&apos;\&apos;(0.6-inf)\&apos;&apos;</OUTCOME>
	<PROPERTY>position = (1760,96)</PROPERTY>
</VARIABLE>
<VARIABLE TYPE="nature">
	<NAME>swerve</NAME>
	<OUTCOME>&apos;\&apos;(-inf--0.6]\&apos;&apos;</OUTCOME>
	<OUTCOME>&apos;\&apos;(-0.6--0.2]\&apos;&apos;</OUTCOME>
	<OUTCOME>&apos;\&apos;(-0.2-0.2]\&apos;&apos;</OUTCOME>
	<OUTCOME>&apos;\&apos;(0.2-0.6]\&apos;&apos;</OUTCOME>
	<OUTCOME>&apos;\&apos;(0.6-inf)\&apos;&apos;</OUTCOME>
	<PROPERTY>position = (1540,192)</PROPERTY>
</VARIABLE>
<VARIABLE TYPE="nature">
	<NAME>throttle</NAME>
	<OUTCOME>&apos;\&apos;(-inf-0.2]\&apos;&apos;</OUTCOME>
	<OUTCOME>&apos;\&apos;(0.2-0.4]\&apos;&apos;</OUTCOME>
	<OUTCOME>&apos;\&apos;(0.4-0.6]\&apos;&apos;</OUTCOME>
	<OUTCOME>&apos;\&apos;(0.6-0.8]\&apos;&apos;</OUTCOME>
	<OUTCOME>&apos;\&apos;(0.8-inf)\&apos;&apos;</OUTCOME>
	<PROPERTY>position = (1540,288)</PROPERTY>
</VARIABLE>
<VARIABLE TYPE="nature">
	<NAME>brake</NAME>
	<OUTCOME>&apos;\&apos;(-inf-0.2]\&apos;&apos;</OUTCOME>
	<OUTCOME>&apos;\&apos;(0.2-0.4]\&apos;&apos;</OUTCOME>
	<OUTCOME>&apos;\&apos;(0.4-0.6]\&apos;&apos;</OUTCOME>
	<OUTCOME>&apos;\&apos;(0.6-0.8]\&apos;&apos;</OUTCOME>
	<OUTCOME>&apos;\&apos;(0.8-inf)\&apos;&apos;</OUTCOME>
	<PROPERTY>position = (660,96)</PROPERTY>
</VARIABLE>
<VARIABLE TYPE="nature">
	<NAME>speed</NAME>
	<OUTCOME>&apos;\&apos;(-inf-0.2]\&apos;&apos;</OUTCOME>
	<OUTCOME>&apos;\&apos;(0.2-0.4]\&apos;&apos;</OUTCOME>
	<OUTCOME>&apos;\&apos;(0.4-0.6]\&apos;&apos;</OUTCOME>
	<OUTCOME>&apos;\&apos;(0.6-0.8]\&apos;&apos;</OUTCOME>
	<OUTCOME>&apos;\&apos;(0.8-inf)\&apos;&apos;</OUTCOME>
	<PROPERTY>position = (1540,384)</PROPERTY>
</VARIABLE>
<VARIABLE TYPE="nature">
	<NAME>acceleration</NAME>
	<OUTCOME>&apos;\&apos;(-inf--0.6]\&apos;&apos;</OUTCOME>
	<OUTCOME>&apos;\&apos;(-0.6--0.2]\&apos;&apos;</OUTCOME>
	<OUTCOME>&apos;\&apos;(-0.2-0.2]\&apos;&apos;</OUTCOME>
	<OUTCOME>&apos;\&apos;(0.2-0.6]\&apos;&apos;</OUTCOME>
	<OUTCOME>&apos;\&apos;(0.6-inf)\&apos;&apos;</OUTCOME>
	<PROPERTY>position = (770,192)</PROPERTY>
</VARIABLE>
<VARIABLE TYPE="nature">
	<NAME>rpm</NAME>
	<OUTCOME>&apos;\&apos;(-inf-0.2]\&apos;&apos;</OUTCOME>
	<OUTCOME>&apos;\&apos;(0.2-0.4]\&apos;&apos;</OUTCOME>
	<OUTCOME>&apos;\&apos;(0.4-0.6]\&apos;&apos;</OUTCOME>
	<OUTCOME>&apos;\&apos;(0.6-0.8]\&apos;&apos;</OUTCOME>
	<OUTCOME>&apos;\&apos;(0.8-inf)\&apos;&apos;</OUTCOME>
	<PROPERTY>position = (1760,480)</PROPERTY>
</VARIABLE>
<VARIABLE TYPE="nature">
	<NAME>gear</NAME>
	<OUTCOME>&apos;\&apos;(-inf-0]\&apos;&apos;</OUTCOME>
	<OUTCOME>&apos;\&apos;(0-1]\&apos;&apos;</OUTCOME>
	<OUTCOME>&apos;\&apos;(1-2]\&apos;&apos;</OUTCOME>
	<OUTCOME>&apos;\&apos;(2-3]\&apos;&apos;</OUTCOME>
	<OUTCOME>&apos;\&apos;(3-4]\&apos;&apos;</OUTCOME>
	<OUTCOME>&apos;\&apos;(4-inf)\&apos;&apos;</OUTCOME>
	<PROPERTY>position = (1100,576)</PROPERTY>
</VARIABLE>
<VARIABLE TYPE="nature">
	<NAME>latitude</NAME>
	<OUTCOME>&apos;\&apos;(-inf-0.2]\&apos;&apos;</OUTCOME>
	<OUTCOME>&apos;\&apos;(0.2-0.4]\&apos;&apos;</OUTCOME>
	<OUTCOME>&apos;\&apos;(0.4-0.6]\&apos;&apos;</OUTCOME>
	<OUTCOME>&apos;\&apos;(0.6-0.8]\&apos;&apos;</OUTCOME>
	<OUTCOME>&apos;\&apos;(0.8-inf)\&apos;&apos;</OUTCOME>
	<PROPERTY>position = (550,288)</PROPERTY>
</VARIABLE>
<VARIABLE TYPE="nature">
	<NAME>longitude</NAME>
	<OUTCOME>&apos;\&apos;(-inf-0.2]\&apos;&apos;</OUTCOME>
	<OUTCOME>&apos;\&apos;(0.2-0.4]\&apos;&apos;</OUTCOME>
	<OUTCOME>&apos;\&apos;(0.4-0.6]\&apos;&apos;</OUTCOME>
	<OUTCOME>&apos;\&apos;(0.6-0.8]\&apos;&apos;</OUTCOME>
	<OUTCOME>&apos;\&apos;(0.8-inf)\&apos;&apos;</OUTCOME>
	<PROPERTY>position = (550,192)</PROPERTY>
</VARIABLE>
<VARIABLE TYPE="nature">
	<NAME>cooling</NAME>
	<OUTCOME>False</OUTCOME>
	<OUTCOME>True</OUTCOME>
	<PROPERTY>position = (440,288)</PROPERTY>
</VARIABLE>
<VARIABLE TYPE="nature">
	<NAME>Engine_temp</NAME>
	<OUTCOME>&apos;\&apos;(-inf-0.2]\&apos;&apos;</OUTCOME>
	<OUTCOME>&apos;\&apos;(0.2-0.4]\&apos;&apos;</OUTCOME>
	<OUTCOME>&apos;\&apos;(0.4-0.6]\&apos;&apos;</OUTCOME>
	<OUTCOME>&apos;\&apos;(0.6-0.8]\&apos;&apos;</OUTCOME>
	<OUTCOME>&apos;\&apos;(0.8-inf)\&apos;&apos;</OUTCOME>
	<PROPERTY>position = (880,288)</PROPERTY>
</VARIABLE>
<VARIABLE TYPE="nature">
	<NAME>light</NAME>
	<OUTCOME>Green</OUTCOME>
	<OUTCOME>Red</OUTCOME>
	<PROPERTY>position = (0,96)</PROPERTY>
</VARIABLE>
<VARIABLE TYPE="nature">
	<NAME>at_light</NAME>
	<OUTCOME>True</OUTCOME>
	<OUTCOME>False</OUTCOME>
	<PROPERTY>position = (990,288)</PROPERTY>
</VARIABLE>
<VARIABLE TYPE="nature">
	<NAME>intensity_collision</NAME>
	<OUTCOME>&apos;\&apos;(-inf-0.097722]\&apos;&apos;</OUTCOME>
	<OUTCOME>&apos;\&apos;(0.097722-0.195443]\&apos;&apos;</OUTCOME>
	<OUTCOME>&apos;\&apos;(0.195443-0.293165]\&apos;&apos;</OUTCOME>
	<OUTCOME>&apos;\&apos;(0.293165-0.390886]\&apos;&apos;</OUTCOME>
	<OUTCOME>&apos;\&apos;(0.390886-inf)\&apos;&apos;</OUTCOME>
	<PROPERTY>position = (110,96)</PROPERTY>
</VARIABLE>
<VARIABLE TYPE="nature">
	<NAME>actor_collision</NAME>
	<OUTCOME>No_collision</OUTCOME>
	<OUTCOME>static.wall</OUTCOME>
	<PROPERTY>position = (1980,576)</PROPERTY>
</VARIABLE>
<VARIABLE TYPE="nature">
	<NAME>crossed_lane</NAME>
	<OUTCOME>No_crossed_line</OUTCOME>
	<OUTCOME>Broken</OUTCOME>
	<OUTCOME>NONE</OUTCOME>
	<OUTCOME>Solid+NONE</OUTCOME>
	<OUTCOME>Solid</OUTCOME>
	<PROPERTY>position = (1320,480)</PROPERTY>
</VARIABLE>
<VARIABLE TYPE="nature">
	<NAME>attack</NAME>
	<OUTCOME>&apos;\&apos;(-inf-0.5]\&apos;&apos;</OUTCOME>
	<OUTCOME>&apos;\&apos;(0.5-inf)\&apos;&apos;</OUTCOME>
	<PROPERTY>position = (880,0)</PROPERTY>
</VARIABLE>
<DEFINITION>
<FOR>steer</FOR>
	<GIVEN>attack</GIVEN>
<TABLE>
0.0736156351791531 0.16221498371335505 0.7355048859934853 0.028013029315960912 6.514657980456026E-4 
0.14285714285714285 0.14285714285714285 0.14285714285714285 0.14285714285714285 0.42857142857142855 
</TABLE>
</DEFINITION>
<DEFINITION>
<FOR>swerve</FOR>
	<GIVEN>attack</GIVEN>
	<GIVEN>steer</GIVEN>
<TABLE>
0.02564102564102564 0.008547008547008548 0.9487179487179487 0.008547008547008548 0.008547008547008548 
0.003952569169960474 0.003952569169960474 0.9841897233201581 0.003952569169960474 0.003952569169960474 
8.8261253309797E-4 8.8261253309797E-4 0.9541041482789056 8.8261253309797E-4 0.04324801412180053 
0.02127659574468085 0.02127659574468085 0.02127659574468085 0.02127659574468085 0.9148936170212766 
0.2 0.2 0.2 0.2 0.2 
0.2 0.2 0.2 0.2 0.2 
0.2 0.2 0.2 0.2 0.2 
0.2 0.2 0.2 0.2 0.2 
0.2 0.2 0.2 0.2 0.2 
0.14285714285714285 0.14285714285714285 0.14285714285714285 0.14285714285714285 0.42857142857142855 
</TABLE>
</DEFINITION>
<DEFINITION>
<FOR>throttle</FOR>
	<GIVEN>attack</GIVEN>
	<GIVEN>steer</GIVEN>
	<GIVEN>swerve</GIVEN>
<TABLE>
0.42857142857142855 0.14285714285714285 0.14285714285714285 0.14285714285714285 0.14285714285714285 
0.2 0.2 0.2 0.2 0.2 
0.02608695652173913 0.008695652173913044 0.008695652173913044 0.008695652173913044 0.9478260869565217 
0.2 0.2 0.2 0.2 0.2 
0.2 0.2 0.2 0.2 0.2 
0.2 0.2 0.2 0.2 0.2 
0.2 0.2 0.2 0.2 0.2 
0.003952569169960474 0.003952569169960474 0.003952569169960474 0.003952569169960474 0.9841897233201581 
0.2 0.2 0.2 0.2 0.2 
0.2 0.2 0.2 0.2 0.2 
0.2 0.2 0.2 0.2 0.2 
0.2 0.2 0.2 0.2 0.2 
0.4525345622119816 9.216589861751152E-4 9.216589861751152E-4 9.216589861751152E-4 0.5447004608294931 
0.2 0.2 0.2 0.2 0.2 
0.018867924528301886 0.018867924528301886 0.018867924528301886 0.018867924528301886 0.9245283018867925 
0.2 0.2 0.2 0.2 0.2 
0.2 0.2 0.2 0.2 0.2 
0.2 0.2 0.2 0.2 0.2 
0.2 0.2 0.2 0.2 0.2 
0.02127659574468085 0.02127659574468085 0.02127659574468085 0.02127659574468085 0.9148936170212766 
0.2 0.2 0.2 0.2 0.2 
0.2 0.2 0.2 0.2 0.2 
0.2 0.2 0.2 0.2 0.2 
0.2 0.2 0.2 0.2 0.2 
0.2 0.2 0.2 0.2 0.2 
0.2 0.2 0.2 0.2 0.2 
0.2 0.2 0.2 0.2 0.2 
0.2 0.2 0.2 0.2 0.2 
0.2 0.2 0.2 0.2 0.2 
0.2 0.2 0.2 0.2 0.2 
0.2 0.2 0.2 0.2 0.2 
0.2 0.2 0.2 0.2 0.2 
0.2 0.2 0.2 0.2 0.2 
0.2 0.2 0.2 0.2 0.2 
0.2 0.2 0.2 0.2 0.2 
0.2 0.2 0.2 0.2 0.2 
0.2 0.2 0.2 0.2 0.2 
0.2 0.2 0.2 0.2 0.2 
0.2 0.2 0.2 0.2 0.2 
0.2 0.2 0.2 0.2 0.2 
0.2 0.2 0.2 0.2 0.2 
0.2 0.2 0.2 0.2 0.2 
0.2 0.2 0.2 0.2 0.2 
0.2 0.2 0.2 0.2 0.2 
0.2 0.2 0.2 0.2 0.2 
0.2 0.2 0.2 0.2 0.2 
0.2 0.2 0.2 0.2 0.2 
0.2 0.2 0.2 0.2 0.2 
0.2 0.2 0.2 0.2 0.2 
0.14285714285714285 0.14285714285714285 0.14285714285714285 0.14285714285714285 0.42857142857142855 
</TABLE>
</DEFINITION>
<DEFINITION>
<FOR>brake</FOR>
	<GIVEN>attack</GIVEN>
<TABLE>
0.9973941368078176 6.514657980456026E-4 6.514657980456026E-4 6.514657980456026E-4 6.514657980456026E-4 
0.14285714285714285 0.14285714285714285 0.14285714285714285 0.14285714285714285 0.42857142857142855 
</TABLE>
</DEFINITION>
<DEFINITION>
<FOR>speed</FOR>
	<GIVEN>attack</GIVEN>
	<GIVEN>throttle</GIVEN>
	<GIVEN>steer</GIVEN>
<TABLE>
0.5555555555555556 0.1111111111111111 0.1111111111111111 0.1111111111111111 0.1111111111111111 
0.2 0.2 0.2 0.2 0.2 
0.9919191919191919 0.00202020202020202 0.00202020202020202 0.00202020202020202 0.00202020202020202 
0.2 0.2 0.2 0.2 0.2 
0.2 0.2 0.2 0.2 0.2 
0.2 0.2 0.2 0.2 0.2 
0.2 0.2 0.2 0.2 0.2 
0.2 0.2 0.2 0.2 0.2 
0.2 0.2 0.2 0.2 0.2 
0.2 0.2 0.2 0.2 0.2 
0.2 0.2 0.2 0.2 0.2 
0.2 0.2 0.2 0.2 0.2 
0.2 0.2 0.2 0.2 0.2 
0.2 0.2 0.2 0.2 0.2 
0.2 0.2 0.2 0.2 0.2 
0.2 0.2 0.2 0.2 0.2 
0.2 0.2 0.2 0.2 0.2 
0.2 0.2 0.2 0.2 0.2 
0.2 0.2 0.2 0.2 0.2 
0.2 0.2 0.2 0.2 0.2 
0.9646017699115044 0.008849557522123894 0.008849557522123894 0.008849557522123894 0.008849557522123894 
0.7628458498023716 0.16205533596837945 0.06719367588932806 0.003952569169960474 0.003952569169960474 
0.4525660964230171 0.28149300155520995 0.26283048211508553 0.0015552099533437014 0.0015552099533437014 
0.9148936170212766 0.02127659574468085 0.02127659574468085 0.02127659574468085 0.02127659574468085 
0.2 0.2 0.2 0.2 0.2 
0.2 0.2 0.2 0.2 0.2 
0.2 0.2 0.2 0.2 0.2 
0.2 0.2 0.2 0.2 0.2 
0.2 0.2 0.2 0.2 0.2 
0.2 0.2 0.2 0.2 0.2 
0.2 0.2 0.2 0.2 0.2 
0.2 0.2 0.2 0.2 0.2 
0.2 0.2 0.2 0.2 0.2 
0.2 0.2 0.2 0.2 0.2 
0.2 0.2 0.2 0.2 0.2 
0.2 0.2 0.2 0.2 0.2 
0.2 0.2 0.2 0.2 0.2 
0.2 0.2 0.2 0.2 0.2 
0.2 0.2 0.2 0.2 0.2 
0.2 0.2 0.2 0.2 0.2 
0.2 0.2 0.2 0.2 0.2 
0.2 0.2 0.2 0.2 0.2 
0.2 0.2 0.2 0.2 0.2 
0.2 0.2 0.2 0.2 0.2 
0.2 0.2 0.2 0.2 0.2 
0.2 0.2 0.2 0.2 0.2 
0.2 0.2 0.2 0.2 0.2 
0.2 0.2 0.2 0.2 0.2 
0.2 0.2 0.2 0.2 0.2 
0.14285714285714285 0.14285714285714285 0.14285714285714285 0.14285714285714285 0.42857142857142855 
</TABLE>
</DEFINITION>
<DEFINITION>
<FOR>acceleration</FOR>
	<GIVEN>attack</GIVEN>
	<GIVEN>brake</GIVEN>
<TABLE>
0.001954397394136808 6.514657980456026E-4 0.9960912052117263 6.514657980456026E-4 6.514657980456026E-4 
0.2 0.2 0.2 0.2 0.2 
0.2 0.2 0.2 0.2 0.2 
0.2 0.2 0.2 0.2 0.2 
0.2 0.2 0.2 0.2 0.2 
0.2 0.2 0.2 0.2 0.2 
0.2 0.2 0.2 0.2 0.2 
0.2 0.2 0.2 0.2 0.2 
0.2 0.2 0.2 0.2 0.2 
0.14285714285714285 0.14285714285714285 0.14285714285714285 0.14285714285714285 0.42857142857142855 
</TABLE>
</DEFINITION>
<DEFINITION>
<FOR>rpm</FOR>
	<GIVEN>attack</GIVEN>
	<GIVEN>speed</GIVEN>
	<GIVEN>steer</GIVEN>
<TABLE>
0.9658119658119658 0.008547008547008548 0.008547008547008548 0.008547008547008548 0.008547008547008548 
0.7157360406091371 0.16751269035532995 0.1065989847715736 0.005076142131979695 0.005076142131979695 
0.7961783439490446 0.10828025477707007 0.06496815286624204 0.02929936305732484 0.0012738853503184713 
0.10638297872340426 0.7021276595744681 0.14893617021276595 0.02127659574468085 0.02127659574468085 
0.2 0.2 0.2 0.2 0.2 
0.2 0.2 0.2 0.2 0.2 
0.022222222222222223 0.6 0.2 0.15555555555555556 0.022222222222222223 
0.03783783783783784 0.04864864864864865 0.4918918918918919 0.41621621621621624 0.005405405405405406 
0.2 0.2 0.2 0.2 0.2 
0.2 0.2 0.2 0.2 0.2 
0.2 0.2 0.2 0.2 0.2 
0.047619047619047616 0.047619047619047616 0.8095238095238095 0.047619047619047616 0.047619047619047616 
0.005780346820809248 0.1676300578034682 0.6069364161849711 0.2138728323699422 0.005780346820809248 
0.2 0.2 0.2 0.2 0.2 
0.2 0.2 0.2 0.2 0.2 
0.2 0.2 0.2 0.2 0.2 
0.2 0.2 0.2 0.2 0.2 
0.2 0.2 0.2 0.2 0.2 
0.2 0.2 0.2 0.2 0.2 
0.2 0.2 0.2 0.2 0.2 
0.2 0.2 0.2 0.2 0.2 
0.2 0.2 0.2 0.2 0.2 
0.2 0.2 0.2 0.2 0.2 
0.2 0.2 0.2 0.2 0.2 
0.2 0.2 0.2 0.2 0.2 
0.2 0.2 0.2 0.2 0.2 
0.2 0.2 0.2 0.2 0.2 
0.2 0.2 0.2 0.2 0.2 
0.2 0.2 0.2 0.2 0.2 
0.2 0.2 0.2 0.2 0.2 
0.2 0.2 0.2 0.2 0.2 
0.2 0.2 0.2 0.2 0.2 
0.2 0.2 0.2 0.2 0.2 
0.2 0.2 0.2 0.2 0.2 
0.2 0.2 0.2 0.2 0.2 
0.2 0.2 0.2 0.2 0.2 
0.2 0.2 0.2 0.2 0.2 
0.2 0.2 0.2 0.2 0.2 
0.2 0.2 0.2 0.2 0.2 
0.2 0.2 0.2 0.2 0.2 
0.2 0.2 0.2 0.2 0.2 
0.2 0.2 0.2 0.2 0.2 
0.2 0.2 0.2 0.2 0.2 
0.2 0.2 0.2 0.2 0.2 
0.2 0.2 0.2 0.2 0.2 
0.2 0.2 0.2 0.2 0.2 
0.2 0.2 0.2 0.2 0.2 
0.2 0.2 0.2 0.2 0.2 
0.2 0.2 0.2 0.2 0.2 
0.14285714285714285 0.14285714285714285 0.14285714285714285 0.14285714285714285 0.42857142857142855 
</TABLE>
</DEFINITION>
<DEFINITION>
<FOR>gear</FOR>
	<GIVEN>attack</GIVEN>
	<GIVEN>speed</GIVEN>
	<GIVEN>rpm</GIVEN>
<TABLE>
0.3261851015801354 0.3893905191873589 0.10496613995485328 0.11851015801354402 0.05981941309255079 0.001128668171557562 
0.461038961038961 0.42207792207792205 0.09740259740259741 0.006493506493506494 0.006493506493506494 0.006493506493506494 
0.4024390243902439 0.5487804878048781 0.012195121951219513 0.012195121951219513 0.012195121951219513 0.012195121951219513 
0.8214285714285714 0.03571428571428571 0.03571428571428571 0.03571428571428571 0.03571428571428571 0.03571428571428571 
0.16666666666666666 0.16666666666666666 0.16666666666666666 0.16666666666666666 0.16666666666666666 0.16666666666666666 
0.08333333333333333 0.08333333333333333 0.08333333333333333 0.08333333333333333 0.5833333333333334 0.08333333333333333 
0.025 0.025 0.725 0.175 0.025 0.025 
0.009615384615384616 0.009615384615384616 0.9519230769230769 0.009615384615384616 0.009615384615384616 0.009615384615384616 
0.7159090909090909 0.07954545454545454 0.14772727272727273 0.03409090909090909 0.011363636363636364 0.011363636363636364 
0.16666666666666666 0.16666666666666666 0.16666666666666666 0.16666666666666666 0.16666666666666666 0.16666666666666666 
0.16666666666666666 0.16666666666666666 0.16666666666666666 0.16666666666666666 0.16666666666666666 0.16666666666666666 
0.029411764705882353 0.029411764705882353 0.029411764705882353 0.20588235294117646 0.6764705882352942 0.029411764705882353 
0.24603174603174602 0.007936507936507936 0.007936507936507936 0.626984126984127 0.10317460317460317 0.007936507936507936 
0.2619047619047619 0.023809523809523808 0.6428571428571429 0.023809523809523808 0.023809523809523808 0.023809523809523808 
0.16666666666666666 0.16666666666666666 0.16666666666666666 0.16666666666666666 0.16666666666666666 0.16666666666666666 
0.16666666666666666 0.16666666666666666 0.16666666666666666 0.16666666666666666 0.16666666666666666 0.16666666666666666 
0.16666666666666666 0.16666666666666666 0.16666666666666666 0.16666666666666666 0.16666666666666666 0.16666666666666666 
0.16666666666666666 0.16666666666666666 0.16666666666666666 0.16666666666666666 0.16666666666666666 0.16666666666666666 
0.16666666666666666 0.16666666666666666 0.16666666666666666 0.16666666666666666 0.16666666666666666 0.16666666666666666 
0.16666666666666666 0.16666666666666666 0.16666666666666666 0.16666666666666666 0.16666666666666666 0.16666666666666666 
0.16666666666666666 0.16666666666666666 0.16666666666666666 0.16666666666666666 0.16666666666666666 0.16666666666666666 
0.16666666666666666 0.16666666666666666 0.16666666666666666 0.16666666666666666 0.16666666666666666 0.16666666666666666 
0.16666666666666666 0.16666666666666666 0.16666666666666666 0.16666666666666666 0.16666666666666666 0.16666666666666666 
0.16666666666666666 0.16666666666666666 0.16666666666666666 0.16666666666666666 0.16666666666666666 0.16666666666666666 
0.16666666666666666 0.16666666666666666 0.16666666666666666 0.16666666666666666 0.16666666666666666 0.16666666666666666 
0.16666666666666666 0.16666666666666666 0.16666666666666666 0.16666666666666666 0.16666666666666666 0.16666666666666666 
0.16666666666666666 0.16666666666666666 0.16666666666666666 0.16666666666666666 0.16666666666666666 0.16666666666666666 
0.16666666666666666 0.16666666666666666 0.16666666666666666 0.16666666666666666 0.16666666666666666 0.16666666666666666 
0.16666666666666666 0.16666666666666666 0.16666666666666666 0.16666666666666666 0.16666666666666666 0.16666666666666666 
0.16666666666666666 0.16666666666666666 0.16666666666666666 0.16666666666666666 0.16666666666666666 0.16666666666666666 
0.16666666666666666 0.16666666666666666 0.16666666666666666 0.16666666666666666 0.16666666666666666 0.16666666666666666 
0.16666666666666666 0.16666666666666666 0.16666666666666666 0.16666666666666666 0.16666666666666666 0.16666666666666666 
0.16666666666666666 0.16666666666666666 0.16666666666666666 0.16666666666666666 0.16666666666666666 0.16666666666666666 
0.16666666666666666 0.16666666666666666 0.16666666666666666 0.16666666666666666 0.16666666666666666 0.16666666666666666 
0.16666666666666666 0.16666666666666666 0.16666666666666666 0.16666666666666666 0.16666666666666666 0.16666666666666666 
0.16666666666666666 0.16666666666666666 0.16666666666666666 0.16666666666666666 0.16666666666666666 0.16666666666666666 
0.16666666666666666 0.16666666666666666 0.16666666666666666 0.16666666666666666 0.16666666666666666 0.16666666666666666 
0.16666666666666666 0.16666666666666666 0.16666666666666666 0.16666666666666666 0.16666666666666666 0.16666666666666666 
0.16666666666666666 0.16666666666666666 0.16666666666666666 0.16666666666666666 0.16666666666666666 0.16666666666666666 
0.16666666666666666 0.16666666666666666 0.16666666666666666 0.16666666666666666 0.16666666666666666 0.16666666666666666 
0.16666666666666666 0.16666666666666666 0.16666666666666666 0.16666666666666666 0.16666666666666666 0.16666666666666666 
0.16666666666666666 0.16666666666666666 0.16666666666666666 0.16666666666666666 0.16666666666666666 0.16666666666666666 
0.16666666666666666 0.16666666666666666 0.16666666666666666 0.16666666666666666 0.16666666666666666 0.16666666666666666 
0.16666666666666666 0.16666666666666666 0.16666666666666666 0.16666666666666666 0.16666666666666666 0.16666666666666666 
0.16666666666666666 0.16666666666666666 0.16666666666666666 0.16666666666666666 0.16666666666666666 0.16666666666666666 
0.16666666666666666 0.16666666666666666 0.16666666666666666 0.16666666666666666 0.16666666666666666 0.16666666666666666 
0.16666666666666666 0.16666666666666666 0.16666666666666666 0.16666666666666666 0.16666666666666666 0.16666666666666666 
0.16666666666666666 0.16666666666666666 0.16666666666666666 0.16666666666666666 0.16666666666666666 0.16666666666666666 
0.16666666666666666 0.16666666666666666 0.16666666666666666 0.16666666666666666 0.16666666666666666 0.16666666666666666 
0.125 0.125 0.125 0.125 0.125 0.375 
</TABLE>
</DEFINITION>
<DEFINITION>
<FOR>latitude</FOR>
	<GIVEN>attack</GIVEN>
	<GIVEN>acceleration</GIVEN>
	<GIVEN>brake</GIVEN>
<TABLE>
0.42857142857142855 0.14285714285714285 0.14285714285714285 0.14285714285714285 0.14285714285714285 
0.2 0.2 0.2 0.2 0.2 
0.2 0.2 0.2 0.2 0.2 
0.2 0.2 0.2 0.2 0.2 
0.2 0.2 0.2 0.2 0.2 
0.2 0.2 0.2 0.2 0.2 
0.2 0.2 0.2 0.2 0.2 
0.2 0.2 0.2 0.2 0.2 
0.2 0.2 0.2 0.2 0.2 
0.2 0.2 0.2 0.2 0.2 
6.523157208088715E-4 6.523157208088715E-4 0.9973907371167645 6.523157208088715E-4 6.523157208088715E-4 
0.2 0.2 0.2 0.2 0.2 
0.2 0.2 0.2 0.2 0.2 
0.2 0.2 0.2 0.2 0.2 
0.2 0.2 0.2 0.2 0.2 
0.2 0.2 0.2 0.2 0.2 
0.2 0.2 0.2 0.2 0.2 
0.2 0.2 0.2 0.2 0.2 
0.2 0.2 0.2 0.2 0.2 
0.2 0.2 0.2 0.2 0.2 
0.2 0.2 0.2 0.2 0.2 
0.2 0.2 0.2 0.2 0.2 
0.2 0.2 0.2 0.2 0.2 
0.2 0.2 0.2 0.2 0.2 
0.2 0.2 0.2 0.2 0.2 
0.2 0.2 0.2 0.2 0.2 
0.2 0.2 0.2 0.2 0.2 
0.2 0.2 0.2 0.2 0.2 
0.2 0.2 0.2 0.2 0.2 
0.2 0.2 0.2 0.2 0.2 
0.2 0.2 0.2 0.2 0.2 
0.2 0.2 0.2 0.2 0.2 
0.2 0.2 0.2 0.2 0.2 
0.2 0.2 0.2 0.2 0.2 
0.2 0.2 0.2 0.2 0.2 
0.2 0.2 0.2 0.2 0.2 
0.2 0.2 0.2 0.2 0.2 
0.2 0.2 0.2 0.2 0.2 
0.2 0.2 0.2 0.2 0.2 
0.2 0.2 0.2 0.2 0.2 
0.2 0.2 0.2 0.2 0.2 
0.2 0.2 0.2 0.2 0.2 
0.2 0.2 0.2 0.2 0.2 
0.2 0.2 0.2 0.2 0.2 
0.2 0.2 0.2 0.2 0.2 
0.2 0.2 0.2 0.2 0.2 
0.2 0.2 0.2 0.2 0.2 
0.2 0.2 0.2 0.2 0.2 
0.2 0.2 0.2 0.2 0.2 
0.14285714285714285 0.14285714285714285 0.14285714285714285 0.14285714285714285 0.42857142857142855 
</TABLE>
</DEFINITION>
<DEFINITION>
<FOR>longitude</FOR>
	<GIVEN>attack</GIVEN>
	<GIVEN>brake</GIVEN>
<TABLE>
0.9973941368078176 6.514657980456026E-4 6.514657980456026E-4 6.514657980456026E-4 6.514657980456026E-4 
0.2 0.2 0.2 0.2 0.2 
0.2 0.2 0.2 0.2 0.2 
0.2 0.2 0.2 0.2 0.2 
0.2 0.2 0.2 0.2 0.2 
0.2 0.2 0.2 0.2 0.2 
0.2 0.2 0.2 0.2 0.2 
0.2 0.2 0.2 0.2 0.2 
0.2 0.2 0.2 0.2 0.2 
0.14285714285714285 0.14285714285714285 0.14285714285714285 0.14285714285714285 0.42857142857142855 
</TABLE>
</DEFINITION>
<DEFINITION>
<FOR>cooling</FOR>
	<GIVEN>attack</GIVEN>
	<GIVEN>acceleration</GIVEN>
<TABLE>
0.75 0.25 
0.5 0.5 
6.5359477124183E-4 0.9993464052287582 
0.5 0.5 
0.5 0.5 
0.5 0.5 
0.5 0.5 
0.5 0.5 
0.5 0.5 
0.25 0.75 
</TABLE>
</DEFINITION>
<DEFINITION>
<FOR>Engine_temp</FOR>
	<GIVEN>attack</GIVEN>
	<GIVEN>acceleration</GIVEN>
	<GIVEN>brake</GIVEN>
<TABLE>
0.42857142857142855 0.14285714285714285 0.14285714285714285 0.14285714285714285 0.14285714285714285 
0.2 0.2 0.2 0.2 0.2 
0.2 0.2 0.2 0.2 0.2 
0.2 0.2 0.2 0.2 0.2 
0.2 0.2 0.2 0.2 0.2 
0.2 0.2 0.2 0.2 0.2 
0.2 0.2 0.2 0.2 0.2 
0.2 0.2 0.2 0.2 0.2 
0.2 0.2 0.2 0.2 0.2 
0.2 0.2 0.2 0.2 0.2 
6.523157208088715E-4 6.523157208088715E-4 6.523157208088715E-4 6.523157208088715E-4 0.9973907371167645 
0.2 0.2 0.2 0.2 0.2 
0.2 0.2 0.2 0.2 0.2 
0.2 0.2 0.2 0.2 0.2 
0.2 0.2 0.2 0.2 0.2 
0.2 0.2 0.2 0.2 0.2 
0.2 0.2 0.2 0.2 0.2 
0.2 0.2 0.2 0.2 0.2 
0.2 0.2 0.2 0.2 0.2 
0.2 0.2 0.2 0.2 0.2 
0.2 0.2 0.2 0.2 0.2 
0.2 0.2 0.2 0.2 0.2 
0.2 0.2 0.2 0.2 0.2 
0.2 0.2 0.2 0.2 0.2 
0.2 0.2 0.2 0.2 0.2 
0.2 0.2 0.2 0.2 0.2 
0.2 0.2 0.2 0.2 0.2 
0.2 0.2 0.2 0.2 0.2 
0.2 0.2 0.2 0.2 0.2 
0.2 0.2 0.2 0.2 0.2 
0.2 0.2 0.2 0.2 0.2 
0.2 0.2 0.2 0.2 0.2 
0.2 0.2 0.2 0.2 0.2 
0.2 0.2 0.2 0.2 0.2 
0.2 0.2 0.2 0.2 0.2 
0.2 0.2 0.2 0.2 0.2 
0.2 0.2 0.2 0.2 0.2 
0.2 0.2 0.2 0.2 0.2 
0.2 0.2 0.2 0.2 0.2 
0.2 0.2 0.2 0.2 0.2 
0.2 0.2 0.2 0.2 0.2 
0.2 0.2 0.2 0.2 0.2 
0.2 0.2 0.2 0.2 0.2 
0.2 0.2 0.2 0.2 0.2 
0.2 0.2 0.2 0.2 0.2 
0.2 0.2 0.2 0.2 0.2 
0.2 0.2 0.2 0.2 0.2 
0.2 0.2 0.2 0.2 0.2 
0.2 0.2 0.2 0.2 0.2 
0.14285714285714285 0.14285714285714285 0.14285714285714285 0.14285714285714285 0.42857142857142855 
</TABLE>
</DEFINITION>
<DEFINITION>
<FOR>light</FOR>
	<GIVEN>attack</GIVEN>
<TABLE>
0.9993472584856397 6.527415143603133E-4 
0.25 0.75 
</TABLE>
</DEFINITION>
<DEFINITION>
<FOR>at_light</FOR>
	<GIVEN>attack</GIVEN>
	<GIVEN>acceleration</GIVEN>
<TABLE>
0.75 0.25 
0.5 0.5 
6.5359477124183E-4 0.9993464052287582 
0.5 0.5 
0.5 0.5 
0.5 0.5 
0.5 0.5 
0.5 0.5 
0.5 0.5 
0.25 0.75 
</TABLE>
</DEFINITION>
<DEFINITION>
<FOR>intensity_collision</FOR>
	<GIVEN>attack</GIVEN>
<TABLE>
0.993485342019544 0.001954397394136808 6.514657980456026E-4 0.001954397394136808 0.001954397394136808 
0.42857142857142855 0.14285714285714285 0.14285714285714285 0.14285714285714285 0.14285714285714285 
</TABLE>
</DEFINITION>
<DEFINITION>
<FOR>actor_collision</FOR>
	<GIVEN>attack</GIVEN>
	<GIVEN>steer</GIVEN>
	<GIVEN>rpm</GIVEN>
<TABLE>
0.06140350877192982 0.9385964912280702 
0.5 0.5 
0.5 0.5 
0.5 0.5 
0.5 0.5 
0.3028169014084507 0.6971830985915493 
0.9833333333333333 0.016666666666666666 
0.9782608695652174 0.021739130434782608 
0.875 0.125 
0.5 0.5 
0.9098101265822784 0.09018987341772151 
0.9918032786885246 0.00819672131147541 
0.9878048780487805 0.012195121951219513 
0.9779411764705882 0.022058823529411766 
0.5 0.5 
0.8333333333333334 0.16666666666666666 
0.9705882352941176 0.029411764705882353 
0.875 0.125 
0.5 0.5 
0.5 0.5 
0.5 0.5 
0.5 0.5 
0.5 0.5 
0.5 0.5 
0.5 0.5 
0.5 0.5 
0.5 0.5 
0.5 0.5 
0.5 0.5 
0.5 0.5 
0.5 0.5 
0.5 0.5 
0.5 0.5 
0.5 0.5 
0.5 0.5 
0.5 0.5 
0.5 0.5 
0.5 0.5 
0.5 0.5 
0.5 0.5 
0.5 0.5 
0.5 0.5 
0.5 0.5 
0.5 0.5 
0.5 0.5 
0.5 0.5 
0.5 0.5 
0.5 0.5 
0.5 0.5 
0.75 0.25 
</TABLE>
</DEFINITION>
<DEFINITION>
<FOR>crossed_lane</FOR>
	<GIVEN>attack</GIVEN>
	<GIVEN>speed</GIVEN>
<TABLE>
0.9929266136162688 8.841732979664014E-4 8.841732979664014E-4 8.841732979664014E-4 0.004420866489832007 
0.9644444444444444 0.022222222222222223 0.0044444444444444444 0.0044444444444444444 0.0044444444444444444 
0.8306878306878307 0.026455026455026454 0.1111111111111111 0.015873015873015872 0.015873015873015872 
0.2 0.2 0.2 0.2 0.2 
0.2 0.2 0.2 0.2 0.2 
0.2 0.2 0.2 0.2 0.2 
0.2 0.2 0.2 0.2 0.2 
0.2 0.2 0.2 0.2 0.2 
0.2 0.2 0.2 0.2 0.2 
0.42857142857142855 0.14285714285714285 0.14285714285714285 0.14285714285714285 0.14285714285714285 
</TABLE>
</DEFINITION>
<DEFINITION>
<FOR>attack</FOR>
<TABLE>
0.9980443285528031 0.001955671447196871 
</TABLE>
</DEFINITION>
</NETWORK>
</BIF>
